digraph Tree {
node [shape=box, style="filled, rounded", color="black", fontname=helvetica] ;
edge [fontname=helvetica] ;
0 [label="Site EUI (kBtu/ft²) <= 16.25\nfriedman_mse = 1.0\nsamples = 6622\nvalue = 0.012", fillcolor="#e58139b8"] ;
1 [label="Largest Property Use Type_Multifamily Housing <= 0.5\nfriedman_mse = 0.848\nsamples = 187\nvalue = 0.39", fillcolor="#e58139c5"] ;
0 -> 1 [labeldistance=2.5, labelangle=45, headlabel="True"] ;
2 [label="Site EUI (kBtu/ft²) <= 9.3\nfriedman_mse = 0.973\nsamples = 67\nvalue = -0.164", fillcolor="#e58139b1"] ;
1 -> 2 ;
3 [label="Property Id <= 3263888.5\nfriedman_mse = 0.823\nsamples = 38\nvalue = -0.421", fillcolor="#e58139a8"] ;
2 -> 3 ;
4 [label="Property Id <= 2820125.0\nfriedman_mse = 0.983\nsamples = 23\nvalue = -0.13", fillcolor="#e58139b3"] ;
3 -> 4 ;
5 [label="friedman_mse = 0.71\nsamples = 13\nvalue = -0.019", fillcolor="#e58139b6"] ;
4 -> 5 ;
6 [label="friedman_mse = 0.84\nsamples = 10\nvalue = 0.001", fillcolor="#e58139b7"] ;
4 -> 6 ;
7 [label="Year Built <= 1985.0\nfriedman_mse = 0.249\nsamples = 15\nvalue = -0.867", fillcolor="#e5813998"] ;
3 -> 7 ;
8 [label="friedman_mse = 0.0\nsamples = 9\nvalue = -0.046", fillcolor="#e58139b6"] ;
7 -> 8 ;
9 [label="friedman_mse = 0.556\nsamples = 6\nvalue = -0.041", fillcolor="#e58139b6"] ;
7 -> 9 ;
10 [label="log_Direct GHG Emissions (Metric Tons CO2e) <= 4.022\nfriedman_mse = 0.97\nsamples = 29\nvalue = 0.172", fillcolor="#e58139bd"] ;
2 -> 10 ;
11 [label="Order <= 11048.0\nfriedman_mse = 0.64\nsamples = 15\nvalue = 0.6", fillcolor="#e58139cd"] ;
10 -> 11 ;
12 [label="friedman_mse = 0.0\nsamples = 9\nvalue = 0.757", fillcolor="#e58139d2"] ;
11 -> 12 ;
13 [label="friedman_mse = 1.0\nsamples = 6\nvalue = -0.564", fillcolor="#e58139a3"] ;
11 -> 13 ;
14 [label="Latitude <= 40.758\nfriedman_mse = 0.918\nsamples = 14\nvalue = -0.286", fillcolor="#e58139ad"] ;
10 -> 14 ;
15 [label="friedman_mse = 0.0\nsamples = 6\nvalue = -0.244", fillcolor="#e58139ae"] ;
14 -> 15 ;
16 [label="friedman_mse = 0.938\nsamples = 8\nvalue = 0.003", fillcolor="#e58139b7"] ;
14 -> 16 ;
17 [label="Weather Normalized Site Electricity Intensity (kWh/ft²) <= 4.95\nfriedman_mse = 0.51\nsamples = 120\nvalue = 0.7", fillcolor="#e58139d0"] ;
1 -> 17 ;
18 [label="Year Built <= 1962.0\nfriedman_mse = 0.118\nsamples = 99\nvalue = 0.939", fillcolor="#e58139d9"] ;
17 -> 18 ;
19 [label="friedman_mse = 0.0\nsamples = 82\nvalue = 0.001", fillcolor="#e58139b7"] ;
18 -> 19 ;
20 [label="Property Id <= 4260380.5\nfriedman_mse = 0.581\nsamples = 17\nvalue = 0.647", fillcolor="#e58139ce"] ;
18 -> 20 ;
21 [label="friedman_mse = 1.0\nsamples = 6\nvalue = -0.0", fillcolor="#e58139b7"] ;
20 -> 21 ;
22 [label="friedman_mse = 0.0\nsamples = 11\nvalue = 0.001", fillcolor="#e58139b7"] ;
20 -> 22 ;
23 [label="Order <= 7757.5\nfriedman_mse = 0.816\nsamples = 21\nvalue = -0.429", fillcolor="#e58139a8"] ;
17 -> 23 ;
24 [label="friedman_mse = 0.889\nsamples = 6\nvalue = 0.068", fillcolor="#e58139ba"] ;
23 -> 24 ;
25 [label="DOF Gross Floor Area <= 86091.5\nfriedman_mse = 0.462\nsamples = 15\nvalue = -0.733", fillcolor="#e581399d"] ;
23 -> 25 ;
26 [label="friedman_mse = 0.889\nsamples = 6\nvalue = -0.0", fillcolor="#e58139b7"] ;
25 -> 26 ;
27 [label="friedman_mse = 0.0\nsamples = 9\nvalue = -0.0", fillcolor="#e58139b7"] ;
25 -> 27 ;
28 [label="Site EUI (kBtu/ft²) <= 17.15\nfriedman_mse = 1.0\nsamples = 6435\nvalue = 0.001", fillcolor="#e58139b7"] ;
0 -> 28 [labeldistance=2.5, labelangle=-45, headlabel="False"] ;
29 [label="Weather Normalized Site Electricity Intensity (kWh/ft²) <= 3.9\nfriedman_mse = 0.691\nsamples = 18\nvalue = -0.556", fillcolor="#e58139a3"] ;
28 -> 29 ;
30 [label="friedman_mse = 0.0\nsamples = 10\nvalue = -0.002", fillcolor="#e58139b7"] ;
29 -> 30 ;
31 [label="friedman_mse = 1.0\nsamples = 8\nvalue = -0.011", fillcolor="#e58139b7"] ;
29 -> 31 ;
32 [label="Site EUI (kBtu/ft²) <= 36.45\nfriedman_mse = 1.0\nsamples = 6417\nvalue = 0.003", fillcolor="#e58139b7"] ;
28 -> 32 ;
33 [label="DOF Gross Floor Area <= 200886.5\nfriedman_mse = 0.989\nsamples = 337\nvalue = 0.104", fillcolor="#e58139bb"] ;
32 -> 33 ;
34 [label="Site EUI (kBtu/ft²) <= 34.55\nfriedman_mse = 0.999\nsamples = 275\nvalue = 0.033", fillcolor="#e58139b8"] ;
33 -> 34 ;
35 [label="friedman_mse = 1.0\nsamples = 245\nvalue = -0.0", fillcolor="#e58139b7"] ;
34 -> 35 ;
36 [label="friedman_mse = 0.889\nsamples = 30\nvalue = 0.616", fillcolor="#e58139cd"] ;
34 -> 36 ;
37 [label="DOF Gross Floor Area <= 686474.0\nfriedman_mse = 0.824\nsamples = 62\nvalue = 0.419", fillcolor="#e58139c6"] ;
33 -> 37 ;
38 [label="friedman_mse = 0.71\nsamples = 52\nvalue = 0.253", fillcolor="#e58139c0"] ;
37 -> 38 ;
39 [label="friedman_mse = 0.96\nsamples = 10\nvalue = -0.264", fillcolor="#e58139ae"] ;
37 -> 39 ;
40 [label="DOF Gross Floor Area <= 2111557.0\nfriedman_mse = 1.0\nsamples = 6080\nvalue = -0.003", fillcolor="#e58139b7"] ;
32 -> 40 ;
41 [label="Largest Property Use Type_Non-Refrigerated Warehouse <= 0.5\nfriedman_mse = 1.0\nsamples = 6069\nvalue = -0.004", fillcolor="#e58139b7"] ;
40 -> 41 ;
42 [label="friedman_mse = 1.0\nsamples = 6022\nvalue = -0.004", fillcolor="#e58139b7"] ;
41 -> 42 ;
43 [label="friedman_mse = 0.923\nsamples = 47\nvalue = -5.127", fillcolor="#e5813900"] ;
41 -> 43 ;
44 [label="friedman_mse = 0.595\nsamples = 11\nvalue = 2.011", fillcolor="#e58139ff"] ;
40 -> 44 ;
}