digraph Tree {
node [shape=box, style="filled, rounded", color="black", fontname=helvetica] ;
edge [fontname=helvetica] ;
0 [label="Site EUI (kBtu/ft²) <= 16.25\nfriedman_mse = 1.0\nsamples = 6622\nvalue = 0.012", fillcolor="#e58139b8"] ;
1 [label="Largest Property Use Type_Multifamily Housing <= 0.5\nfriedman_mse = 0.848\nsamples = 187\nvalue = 0.39", fillcolor="#e58139c5"] ;
0 -> 1 [labeldistance=2.5, labelangle=45, headlabel="True"] ;
2 [label="Site EUI (kBtu/ft²) <= 9.3\nfriedman_mse = 0.973\nsamples = 67\nvalue = -0.164", fillcolor="#e58139b1"] ;
1 -> 2 ;
3 [label="Property Id <= 3263888.5\nfriedman_mse = 0.823\nsamples = 38\nvalue = -0.421", fillcolor="#e58139a8"] ;
2 -> 3 ;
4 [label="(...)", fillcolor="#C0C0C0"] ;
3 -> 4 ;
7 [label="(...)", fillcolor="#C0C0C0"] ;
3 -> 7 ;
10 [label="log_Direct GHG Emissions (Metric Tons CO2e) <= 4.022\nfriedman_mse = 0.97\nsamples = 29\nvalue = 0.172", fillcolor="#e58139bd"] ;
2 -> 10 ;
11 [label="(...)", fillcolor="#C0C0C0"] ;
10 -> 11 ;
14 [label="(...)", fillcolor="#C0C0C0"] ;
10 -> 14 ;
17 [label="Weather Normalized Site Electricity Intensity (kWh/ft²) <= 4.95\nfriedman_mse = 0.51\nsamples = 120\nvalue = 0.7", fillcolor="#e58139d0"] ;
1 -> 17 ;
18 [label="Year Built <= 1962.0\nfriedman_mse = 0.118\nsamples = 99\nvalue = 0.939", fillcolor="#e58139d9"] ;
17 -> 18 ;
19 [label="(...)", fillcolor="#C0C0C0"] ;
18 -> 19 ;
20 [label="(...)", fillcolor="#C0C0C0"] ;
18 -> 20 ;
23 [label="Order <= 7757.5\nfriedman_mse = 0.816\nsamples = 21\nvalue = -0.429", fillcolor="#e58139a8"] ;
17 -> 23 ;
24 [label="(...)", fillcolor="#C0C0C0"] ;
23 -> 24 ;
25 [label="(...)", fillcolor="#C0C0C0"] ;
23 -> 25 ;
28 [label="Site EUI (kBtu/ft²) <= 17.15\nfriedman_mse = 1.0\nsamples = 6435\nvalue = 0.001", fillcolor="#e58139b7"] ;
0 -> 28 [labeldistance=2.5, labelangle=-45, headlabel="False"] ;
29 [label="Weather Normalized Site Electricity Intensity (kWh/ft²) <= 3.9\nfriedman_mse = 0.691\nsamples = 18\nvalue = -0.556", fillcolor="#e58139a3"] ;
28 -> 29 ;
30 [label="friedman_mse = 0.0\nsamples = 10\nvalue = -0.002", fillcolor="#e58139b7"] ;
29 -> 30 ;
31 [label="friedman_mse = 1.0\nsamples = 8\nvalue = -0.011", fillcolor="#e58139b7"] ;
29 -> 31 ;
32 [label="Site EUI (kBtu/ft²) <= 36.45\nfriedman_mse = 1.0\nsamples = 6417\nvalue = 0.003", fillcolor="#e58139b7"] ;
28 -> 32 ;
33 [label="DOF Gross Floor Area <= 200886.5\nfriedman_mse = 0.989\nsamples = 337\nvalue = 0.104", fillcolor="#e58139bb"] ;
32 -> 33 ;
34 [label="(...)", fillcolor="#C0C0C0"] ;
33 -> 34 ;
37 [label="(...)", fillcolor="#C0C0C0"] ;
33 -> 37 ;
40 [label="DOF Gross Floor Area <= 2111557.0\nfriedman_mse = 1.0\nsamples = 6080\nvalue = -0.003", fillcolor="#e58139b7"] ;
32 -> 40 ;
41 [label="(...)", fillcolor="#C0C0C0"] ;
40 -> 41 ;
44 [label="(...)", fillcolor="#C0C0C0"] ;
40 -> 44 ;
}